encog,BasicNetwork,java,3.3.0,1,1458186618835
[BASIC]
[BASIC:PARAMS]
[BASIC:NETWORK]
beginTraining=0
connectionLimit=0
contextTargetOffset=0,0,0
contextTargetSize=0,0,0
endTraining=2
hasContext=f
inputCount=9
layerCounts=1,5,10
layerFeedCounts=1,4,9
layerContextCount=0,0,0
layerIndex=0,1,6
output=0,0,0,0,0,1,0,0,0,0,0,0,0,0,0,1
outputCount=1
weightIndex=0,5,45
weights=-3.5359733534,2.290717911,6.2713923547,1.4347458349,-8.4660222395,-568.1954457535,410.0680067929,183.0832567705,-740.0607875901,595.8838854385,22.7412637361,61.9653683679,-272.9948782821,262.5715178429,-462.5124347966,943.5507642632,-183.9400059155,455.2447102721,1619.5832643444,88.666034872,1192.0459325497,651.6874525267,1174.5244764649,727.9862058249,2.8379872707,934.1767615737,-191.503492294,446.6358698586,1619.3400461972,93.776166446,1195.0381455958,650.2471526434,1173.9507647168,730.3946499829,-7.9542938615,205.8264876304,-653.5831334774,-187.50175903,720.1242415579,-454.845948075,341.234495953,-27.3736569497,350.3576042218,5.3671678715,-424.4701076585
biasActivation=0,1,1
[BASIC:ACTIVATION]
"org.encog.engine.network.activation.ActivationSigmoid"
"org.encog.engine.network.activation.ActivationSigmoid"
"org.encog.engine.network.activation.ActivationLinear"
