encog,BasicNetwork,java,3.3.0,1,1458069317445
[BASIC]
[BASIC:PARAMS]
[BASIC:NETWORK]
beginTraining=0
connectionLimit=0
contextTargetOffset=0,0,0
contextTargetSize=0,0,0
endTraining=2
hasContext=f
inputCount=9
layerCounts=1,5,10
layerFeedCounts=1,4,9
layerContextCount=0,0,0
layerIndex=0,1,6
output=0,0,0,0,0,1,0,0,0,0,0,0,0,0,0,1
outputCount=1
weightIndex=0,5,45
weights=0.7640266466,1.690717911,2.8713923547,3.0347458349,-4.6660222395,-70.7954457534,-530.3319932072,-54.9167432295,370.53921241,-467.7161145616,489.9412637361,-90.2346316321,324.4051217179,52.9715178429,-276.5124347966,383.9507642631,-133.9400059155,333.0447102721,965.583264345,14.466034872,959.8459325498,433.8874525266,849.724476465,544.1862058249,-23.1620127293,-14.2232384264,-661.9034922941,-242.1641301414,418.3400461976,-656.0238335541,239.0381455958,-155.7528473567,248.9507647168,-146.4053500172,-212.5542938615,-230.1735123696,-648.9831334774,-163.50175903,193.1242415578,-545.2459480751,339.634495953,-202.5736569497,236.1576042218,-37.4328321285,-484.8701076585
biasActivation=0,1,1
[BASIC:ACTIVATION]
"org.encog.engine.network.activation.ActivationSigmoid"
"org.encog.engine.network.activation.ActivationSigmoid"
"org.encog.engine.network.activation.ActivationLinear"
