encog,BasicNetwork,java,3.3.0,1,1461287903773
[BASIC]
[BASIC:PARAMS]
[BASIC:NETWORK]
beginTraining=0
connectionLimit=0
contextTargetOffset=0,0,0
contextTargetSize=0,0,0
endTraining=2
hasContext=f
inputCount=10
layerCounts=1,5,11
layerFeedCounts=1,4,10
layerContextCount=0,0,0
layerIndex=0,1,6
output=0,0,0,0,0,1,0,0,0,0,0,0,0,0,0,0,1
outputCount=1
weightIndex=0,5,49
weights=11.7640750239,6.0630393043,34.2996876685,5.6748294036,-2.2035587071,5.2407314422,-30.6413119706,-1799.0347499962,-266.5746639119,105.9929856117,-1970.7226811837,-329.9931785292,-1133.8509736052,-234.8572971272,-867.8948857743,3.8025699002,-0.3206544146,-43.7263507297,-1811.5167376239,-271.5622960178,90.6842592157,-1982.9981939915,-332.0803404984,-1147.5888894775,-244.6604210527,-877.4230974561,0.150902203,-2.1748738654,-23.4767211814,-1824.2637046389,-263.6214751227,116.5286830541,-1993.2303872748,-318.6032524711,-1143.8390939031,-228.1834366302,-869.3749810182,-3.6243099405,-1.0361154592,-44.3276967328,-1812.0304900532,-271.3855464553,91.4416240008,-1984.3488011235,-331.7871962657,-1147.8941468003,-246.1363624456,-876.3634233259,-0.6685119508
biasActivation=0,1,1
[BASIC:ACTIVATION]
"org.encog.engine.network.activation.ActivationSigmoid"
"org.encog.engine.network.activation.ActivationSigmoid"
"org.encog.engine.network.activation.ActivationLinear"
