encog,BasicNetwork,java,3.3.0,1,1460493047589
[BASIC]
[BASIC:PARAMS]
[BASIC:NETWORK]
beginTraining=0
connectionLimit=0
contextTargetOffset=0,0,0
contextTargetSize=0,0,0
endTraining=2
hasContext=f
inputCount=10
layerCounts=1,5,11
layerFeedCounts=1,4,10
layerContextCount=0,0,0
layerIndex=0,1,6
output=0,0,0,0,0,1,0,0,0,0,0,0,0,0,0,0,1
outputCount=1
weightIndex=0,5,49
weights=15.9911923033,3.1026689101,2.8890176175,-1.0179436929,-7.1775083667,-7.2692436412,7.899182521,-31.735127703,-24.6979037045,25.8395719773,-27.4841912604,-5.6739067127,-5.9709962031,4.2213098569,-16.558688096,-7.1552562651,-11.0788734323,31.7284092299,-28.2693139818,3.2705297122,49.3325461118,-30.9611805775,18.6606061422,5.8791040651,24.677926328,-0.0522572786,-10.3654793284,-14.5841631943,25.2121259462,-37.7089769867,6.6671966198,46.3336029087,-35.0124823402,29.2997553879,7.0469029649,30.9621013257,8.112231265,-14.1348625153,7.2201575332,-6.9528170684,17.8310397574,12.786589248,-22.942944431,19.6305078937,9.9040120138,2.4463750033,2.5035330555,19.3581555914,8.0000648881
biasActivation=0,1,1
[BASIC:ACTIVATION]
"org.encog.engine.network.activation.ActivationSigmoid"
"org.encog.engine.network.activation.ActivationSigmoid"
"org.encog.engine.network.activation.ActivationLinear"
