encog,BasicNetwork,java,3.3.0,1,1458186355222
[BASIC]
[BASIC:PARAMS]
[BASIC:NETWORK]
beginTraining=0
connectionLimit=0
contextTargetOffset=0,0,0
contextTargetSize=0,0,0
endTraining=2
hasContext=f
inputCount=9
layerCounts=1,5,10
layerFeedCounts=1,4,9
layerContextCount=0,0,0
layerIndex=0,1,6
output=0,0,0,0,0,1,0,0,0,0,0,0,0,0,0,1
outputCount=1
weightIndex=0,5,45
weights=-3.9359733534,27.490717911,25.5713923547,11.4347458349,1.5339777605,-11.1954457534,37.0680067929,12.2832567705,-27.46078759,38.6838854384,-7.2587362639,3.9653683679,-16.3948782821,12.9715178429,-2.1124347966,9.3507642631,-38.9400059155,-12.1552897279,26.5832643448,-39.733965128,8.0459325497,-4.7125474734,16.3244764649,-14.0137941752,1.4379872707,9.1767615736,-38.903492294,-14.3641301414,27.1400461976,-39.023833554,6.6381455958,-4.9528473567,14.5507647168,-15.6053500172,2.2457061385,8.8264876304,-39.3831334773,-15.30175903,25.9242415578,-40.445948075,6.834495953,-5.3736569497,15.3576042218,-14.2328321285,1.5298923415
biasActivation=0,1,1
[BASIC:ACTIVATION]
"org.encog.engine.network.activation.ActivationSigmoid"
"org.encog.engine.network.activation.ActivationSigmoid"
"org.encog.engine.network.activation.ActivationLinear"
